13 50
the 0.007008336 0.007015933 0.0069695152 -0.0037635362 0.0003060667 0.0022072427 -0.0031526322 -0.004168038 0.0071328003 0.0060806284 0.0051386533 0.007366236 0.00018181208 0.004359218 0.00593986 0.00905749 -0.005635601 0.0036486373 0.0011916199 0.0026861061 -0.010503634 0.01200276 0.005390698 0.0010204454 0.0075830976 -0.010033942 -0.008129234 -0.010834094 0.0041445247 -0.0065485206 0.00679583 -0.0024866865 0.008390546 -0.007999405 0.0044146744 0.008391061 -0.0068682563 -0.008168746 0.0031670965 -0.009572813 0.010406341 0.0015195683 0.004592321 -0.0020505814 -0.0057381196 -0.003241858 0.0003184817 0.006513359 0.007423839 0.010105185
to 0.006635285 0.008420517 -0.0037500346 0.007868678 0.010822988 -0.005230212 -0.0071697785 -0.008365254 0.011472523 0.0072597917 0.0077476595 -0.0048923804 0.008282127 -0.007701305 -0.008484422 -0.0042478736 -8.8986264e-05 0.0022833128 0.00601124 -0.0049083433 -0.002030914 -0.0006527028 0.009936674 -0.0021293222 -0.0007995054 -0.007413261 0.0024219146 -0.0105489325 0.006022475 -0.0006811376 0.008162709 0.009870312 0.0014000402 0.0010914832 0.003308176 0.00057294633 -0.0016853678 0.0025364251 0.010565831 -0.007802375 -0.0022081044 -0.0045825336 0.0055659493 -0.010979331 -0.00974667 0.0042242184 0.005231787 0.010962326 -0.00132598 -0.0074949344
and 0.0025293198 -0.0009905276 0.0049276226 -0.004285518 0.009917089 -0.0038352162 -0.0025807312 -0.0097965235 0.0076100472 0.009144345 0.0036511282 0.011938913 0.00819217 -0.009819965 0.0061709723 -0.0059179 0.0061731017 -0.006961009 0.0050689112 -0.008300478 -0.0023540268 0.00810127 0.011431275 -0.0014834396 0.003247184 -0.012093191 -0.0034847264 0.0035018038 0.0037849182 0.00018752654 -0.010173389 0.009378119 -0.001257344 -0.0022997512 0.007931451 -0.0042998875 0.0058576586 0.005681649 0.013619573 -0.00874608 0.0010850345 -0.0017037841 -0.0008804714 -0.0057006488 0.0034237448 0.008163625 0.012367552 -0.0038384905 0.004748952 0.007841903
of 0.0057393103 -0.0054831407 1.838082e-05 -0.008045701 -0.002937006 -0.00046605035 0.0075953915 -0.0034430344 0.01019695 0.002052587 0.0025157586 -0.00047336982 -0.0056928503 -0.0013726482 0.0053668357 0.0024638653 0.0031044898 -0.006475537 -0.00996547 -0.004199059 0.0018878928 0.0088104885 0.0019682455 0.0043794177 0.0006049356 0.006179456 -0.0064528575 0.00469284 -0.005503234 0.008503984 -0.005045866 0.009724176 -0.008281841 -0.0006636855 -0.0030275427 0.002364628 -0.0054921387 0.008653768 0.007539004 0.004645063 0.010530475 0.0067215096 0.006156579 -0.006171245 0.0023687668 -0.008726738 0.0051156855 -0.0019611414 0.0069347513 4.1479034e-05
a -0.008626488 0.009362531 -0.009161177 0.006460703 0.0074807038 0.0030907548 -0.008700343 0.008485331 0.009223399 0.008101499 -0.0064418428 0.007862084 0.0018143482 -0.0018426989 -0.00991444 0.0027577083 0.007978513 -0.0045168377 0.00052110833 0.0068573 -0.0010541966 -0.004945306 -0.0050970446 -0.0048829266 0.0036008414 -0.008294535 0.00873821 -0.0032629524 -0.008352712 0.00062901905 -0.0037558577 0.0067760544 -0.0068342634 0.0061366507 0.005972388 -0.0026726804 -0.003661479 0.0023405629 0.0012579344 -0.0037671127 0.0015349376 -0.00089884416 0.0017781433 0.0074232095 -0.0035926613 -0.005416438 0.006544473 0.006859391 0.008714777 0.003065134
is 0.0071520214 0.00805848 -0.007830271 -0.0015720663 -0.0023031621 0.0027833874 0.008229239 -0.01028585 0.009349765 0.0042446083 0.008087745 0.008818157 -0.00015686688 0.004396114 -0.0023049708 0.004483396 -0.0039086957 -0.0030342897 0.0031846992 0.005880851 0.0038954387 -0.0010013621 0.010416521 -0.0058035185 0.0028441825 0.0008782313 -0.007225147 -0.008648203 -0.007322932 -0.0028024686 -0.005570864 0.00038420138 -0.008909471 -0.0080695525 -0.0023831269 0.0054104147 -0.005078356 0.0063233124 0.005273088 -0.0058911233 -0.0061585456 0.0036013906 -0.005680645 -0.010008305 0.0010177788 -0.0004107591 0.0068475115 0.008145656 -0.008932944 -0.0025042435
learning -0.00096925744 -0.00011210334 -0.008636527 -0.0018274223 -0.0077969157 -0.0031557092 0.008082102 -0.007820155 0.004278419 0.009811598 0.008667973 0.005513623 0.0068093278 -6.0819395e-05 -0.008365225 -0.00032575894 0.005592236 0.0045690364 -0.007630135 0.0036511258 0.0017854348 -0.0015549776 -0.0071024294 -0.0014784212 -0.007961092 0.0014379091 0.008359647 -0.005215073 -0.0039521595 -0.010270197 -0.0039580236 -0.007951756 -0.009606339 -0.0045311837 0.001019668 -0.006161095 -0.0017480819 -0.009206687 0.005170906 0.003584451 0.010214693 -0.009183178 0.0015216115 0.006346417 -0.0039439765 0.004824582 0.00911557 0.0031017468 0.008191672 0.0037038438
The 0.0071155406 0.008382133 -0.0073474166 0.007223783 0.002383434 0.0011345552 -0.006919916 -0.0045012757 0.0076233177 4.8705966e-05 -0.00059976353 0.002385751 0.008849948 0.0038227972 0.005982628 -0.0030832207 0.008012841 0.008206425 0.002032906 -0.0020797725 0.0037156665 0.0062297224 0.0009412807 0.00061719393 -0.006347581 0.001448056 -0.0040030372 0.003232311 -0.0053769946 -0.0021551847 -0.008416264 0.00054125604 0.001055885 -0.0006782827 0.009011995 -0.0029410732 0.0049470123 -0.0031190878 0.0072931955 -0.0047997274 -0.0046685673 -0.0013729017 0.003671687 -0.007780334 -0.004295347 0.006364147 -0.0016433306 -0.007664931 0.009257737 0.0008016163
for -0.0040713884 0.0086446 -0.008006965 -0.0036540166 0.0060229325 -0.009727034 -0.0037014692 0.0049463436 0.0023130162 -0.008013075 0.0056625423 0.004354521 0.0070722117 -0.0031506373 -1.182612e-05 -0.008522828 -0.003733682 0.006015608 0.009536353 0.0018852704 0.0067950715 0.007674368 0.0047831475 -0.0044904095 -0.0046846964 0.0019540924 0.0005350077 -0.0029333679 -0.0029397367 0.004502762 -0.00353161 -0.007177785 0.001715225 0.0025846416 -0.0020706854 -0.0012157513 0.007820686 0.009405655 -0.007736224 0.0020257009 -0.009327276 0.0029080943 -0.005087688 -0.0065807914 0.003972407 -0.008557483 0.006843769 0.0058243666 -0.0034858352 -0.003820666
data -0.007271914 0.0071582133 0.00903724 0.008158184 0.00040054176 0.0037878552 0.005876172 -0.00441816 0.01080694 -0.00649922 -0.008795889 -0.007619406 -0.0033578107 0.0014107744 -0.0019759058 0.0019869972 -0.0052330247 -0.0016224247 4.8037113e-05 -0.009902027 0.006210488 -0.0012031795 0.0070850994 -0.00062845484 0.0028635995 -0.0043540406 -0.0063717994 0.005821952 0.006551469 0.0032983324 -0.0027077354 0.006492861 -0.0076646367 0.0044482253 -0.009113646 0.0046463986 0.00503354 0.008829998 0.009260734 -0.01078471 0.0068114954 0.008891463 -0.00860246 0.0071096285 -0.0008476883 -0.007387871 0.009685607 0.01057673 0.00012867151 0.010364222
with 0.0027200864 0.0043380344 0.0005973542 -0.0033190865 -0.00013285447 -0.0018668425 -0.0071007214 0.0035112938 0.0013105151 0.0098684495 0.0025172837 0.0028218643 0.00879008 -0.007384344 -0.00274507 -0.004084933 -0.0014553948 0.0008251987 0.002644118 0.005753608 -0.002917061 -0.0037220486 -0.0047080833 0.0076195775 0.006363716 -0.005193678 -0.0069185197 -0.0019202479 -0.0022471 -0.0051543536 0.0011839317 0.0032580327 -0.006532447 -0.008414992 -0.0045428807 -0.00982474 -0.0061623817 -0.010062402 0.0022025302 0.0056092264 -0.0035118526 0.0012385435 0.005415068 0.0049155583 -0.0040368065 -0.003262279 -0.0031771846 -0.005351598 0.004649647 -0.0036841223
in -0.007267555 -0.0016031546 0.0091954395 0.004751224 0.010061248 -0.006463558 -0.010280069 0.0020973429 -0.0044473363 -0.001311982 0.007204884 0.0035195095 0.008884934 -0.007115195 -0.0017034638 0.00038595806 0.0008709094 -0.008130333 0.0022044233 -0.006884064 -0.0022336976 0.0033873988 -0.007146004 0.005085864 0.001969398 0.008712775 0.0065474375 0.008611833 0.0028163379 -0.00865133 -0.00056852587 -0.0032376538 0.0005304104 0.0040606502 -0.003422393 -5.6447014e-05 0.0006677482 -0.0044905785 0.0059079165 0.005179705 0.001510974 -0.0052772476 -0.008814128 0.0014497078 -0.010080663 -0.0062530483 0.0067663356 0.0033676901 0.009870945 -0.004431921
training -6.196485e-05 0.005176773 0.010385191 0.0063752457 0.003843087 0.0032890388 -0.0063768006 -0.007773218 0.0011734555 0.008545576 0.005337806 0.0037757054 0.0022697318 -0.0076558925 0.00025311325 -0.0099712 0.0015162107 0.009459168 -0.009319048 -0.0054931273 0.0025814583 0.0074464795 0.002703231 -0.007048231 -0.0015001518 -0.002413116 0.0021984542 0.00849426 -0.010356813 -0.011341845 0.001884 3.214828e-05 0.0028573892 0.0046469904 -0.0042881905 -0.0025243983 -0.010778441 -0.0038540796 0.011207572 0.005043502 0.0018558963 0.008285786 0.00938023 0.0045560393 0.0006287228 -0.0011997075 -0.0046801465 0.002106526 0.00672148 0.008683149
